digraph Tree {
node [shape=box, style="filled, rounded", color="black", fontname="helvetica"] ;
edge [fontname="helvetica"] ;
0 [label="sepal length (cm) <= 5.45\ngini = 0.66\nsamples = 101\nvalue = [54, 53, 43]\nclass = setosa", fillcolor="#fffefd"] ;
1 [label="petal width (cm) <= 0.75\ngini = 0.19\nsamples = 39\nvalue = [51, 4, 2]\nclass = setosa", fillcolor="#e88f4f"] ;
0 -> 1 [labeldistance=2.5, labelangle=45, headlabel="True"] ;
2 [label="gini = 0.0\nsamples = 34\nvalue = [51, 0, 0]\nclass = setosa", fillcolor="#e58139"] ;
1 -> 2 ;
3 [label="petal width (cm) <= 1.6\ngini = 0.44\nsamples = 5\nvalue = [0, 4, 2]\nclass = versicolor", fillcolor="#9cf2c0"] ;
1 -> 3 ;
4 [label="gini = 0.0\nsamples = 4\nvalue = [0, 4, 0]\nclass = versicolor", fillcolor="#39e581"] ;
3 -> 4 ;
5 [label="gini = 0.0\nsamples = 1\nvalue = [0, 0, 2]\nclass = virginica", fillcolor="#8139e5"] ;
3 -> 5 ;
6 [label="petal length (cm) <= 4.75\ngini = 0.53\nsamples = 62\nvalue = [3, 49, 41]\nclass = versicolor", fillcolor="#e1fbec"] ;
0 -> 6 [labeldistance=2.5, labelangle=-45, headlabel="False"] ;
7 [label="petal length (cm) <= 2.6\ngini = 0.12\nsamples = 29\nvalue = [3, 43, 0]\nclass = versicolor", fillcolor="#47e78a"] ;
6 -> 7 ;
8 [label="gini = 0.0\nsamples = 3\nvalue = [3, 0, 0]\nclass = setosa", fillcolor="#e58139"] ;
7 -> 8 ;
9 [label="gini = 0.0\nsamples = 26\nvalue = [0, 43, 0]\nclass = versicolor", fillcolor="#39e581"] ;
7 -> 9 ;
10 [label="petal width (cm) <= 1.75\ngini = 0.22\nsamples = 33\nvalue = [0, 6, 41]\nclass = virginica", fillcolor="#9356e9"] ;
6 -> 10 ;
11 [label="petal length (cm) <= 5.35\ngini = 0.24\nsamples = 6\nvalue = [0, 6, 1]\nclass = versicolor", fillcolor="#5ae996"] ;
10 -> 11 ;
12 [label="gini = 0.0\nsamples = 5\nvalue = [0, 6, 0]\nclass = versicolor", fillcolor="#39e581"] ;
11 -> 12 ;
13 [label="gini = 0.0\nsamples = 1\nvalue = [0, 0, 1]\nclass = virginica", fillcolor="#8139e5"] ;
11 -> 13 ;
14 [label="gini = 0.0\nsamples = 27\nvalue = [0, 0, 40]\nclass = virginica", fillcolor="#8139e5"] ;
10 -> 14 ;
}